100 64
66 0.14446622 -0.020105466 -0.0049819895 -0.017329186 0.05276242 -0.13358825 0.24871425 -0.09073085 -0.05921625 -0.14245737 -0.010526791 -0.19084254 -0.1750772 -0.05518856 0.03959903 0.14440818 -0.02210338 0.07539325 0.053070355 0.013120125 0.0059548556 0.18339346 0.09378937 0.03709434 -0.012978154 0.07434332 -0.0045350967 0.05434049 0.01359532 -0.16127826 -0.062162325 -0.03626356 -0.12862639 -0.002276565 -0.11752373 -0.03244213 -0.11062633 0.24084952 0.1542823 0.08509581 0.0420519 0.04167908 0.042549413 -0.012692905 0.009155608 -0.069076896 0.11737405 0.15602778 -0.026347108 0.122391455 0.15427564 -0.13511443 0.09116901 0.18038869 0.1015669 -0.017681058 -0.0126867285 0.05759211 -0.23641786 0.15341616 -0.18536961 -0.030977914 0.08925534 -0.027766382
80 0.21930857 0.04106022 0.15824988 0.09517322 -0.011582785 -0.27019274 -0.014543321 0.14146942 -0.17072932 -0.009072306 0.06601703 -0.09414737 -0.027528912 0.08663272 0.10008548 -0.012988388 -0.055307176 -0.01564768 0.047006395 0.08214096 0.044183396 0.28555542 -0.034818277 -0.12700856 -0.07141615 0.08730646 -0.06419339 0.05544702 0.0012657547 -0.10059694 -0.039401364 -0.06455779 -0.24581876 -0.050023146 -0.14589421 -0.25806168 -0.12519777 0.06483492 0.10626231 0.10276225 -0.023474813 0.081203885 -0.03478897 -0.031908195 0.148924 -0.088106446 -0.06584782 0.08063551 0.038297586 0.037502654 0.19107103 -0.018382333 -0.013403612 0.11853784 -0.016686628 0.1119159 -0.033490874 -0.09222478 -0.12360194 0.11882296 0.04079433 -0.055893112 -0.12711427 -0.0281878
88 0.042735882 -0.15039706 -0.1321133 0.12799811 0.12923117 -0.0040039225 0.17063576 0.09459433 -0.034011964 0.021503458 0.0435746 -0.050691996 -0.110410765 -0.22401439 0.10462027 0.12459151 -0.0036899326 0.0041117533 0.1296582 0.13316761 0.053329345 0.071986265 0.08865255 -0.19439255 -0.05382617 0.16084613 0.033336196 0.07153127 0.05372655 0.030942865 -0.06153688 -0.030129783 -0.08195153 -0.05688154 -0.041648462 -0.096886694 0.014970483 0.020550318 0.10536466 -0.058660425 -0.0011168711 0.0731366 -0.08398694 0.016783725 0.005154746 -0.06951735 0.104050346 -0.07120939 -0.14427705 0.06675143 -0.102029696 -0.055358615 0.15296541 0.20162253 0.12315642 0.08848322 0.21387704 0.03949566 -0.2520225 0.19380608 0.08921559 -0.1629149 -0.14981258 0.029197542
64 0.13953875 -0.15296386 -0.08908601 0.26648068 0.14665565 -0.17748766 0.08439322 0.04448274 -0.15710533 -0.085015364 0.101289086 -0.18334989 -0.05592937 -0.023402652 0.11832777 0.19673316 0.008451864 -0.018836515 0.02562893 0.10108257 -0.006382542 0.21792111 0.007954844 -0.044077344 -0.18903252 0.066940926 0.124434255 -0.023326162 0.076749496 0.03938979 -0.07937141 -0.061657954 -0.06992513 -0.1593042 0.08330925 -0.10976147 -0.09623375 -0.009817393 -0.0135411825 -0.03052662 -0.10755238 0.00064219546 0.05999491 -0.044000648 0.14432554 -0.11033137 0.041848104 0.03879831 0.009613894 0.13752046 -0.032312836 -0.16264448 0.05820601 -0.11839311 -0.07606481 0.07264237 0.04371359 -0.006258147 -0.32158986 0.16389543 0.022831889 0.026328377 -0.07842332 -0.042785034
81 0.09188758 -0.009117321 0.07538425 -0.120824285 0.008622537 -0.18113141 -0.06594666 -0.1450359 0.052673224 -0.13876912 0.13293095 -0.17841303 -0.07938075 -0.10646173 0.04284816 0.0005079941 -0.007638186 -0.03588783 0.13859473 0.10827061 0.015531443 0.18923107 0.14837848 -0.03235509 -0.1556797 0.1430711 -0.15428917 0.035258286 0.049811665 0.04628108 -0.16000462 -0.007952749 -0.11907837 0.069773436 -0.060555298 -0.17094226 0.04530215 0.16299888 0.019728536 -0.0973988 0.05866301 0.009345931 0.08566227 -0.101764515 0.045761827 -0.1973653 -0.001405139 -0.14014684 0.045864124 0.26685172 0.06150108 0.013696398 0.036809176 0.12862454 -0.043326482 0.16410054 0.08594021 -0.050151233 -0.11681052 0.19786958 -0.07374006 -0.16687708 -0.0002606657 0.064248316
85 0.20367464 -0.13762774 -0.1296275 0.058272254 0.020676631 -0.020662053 0.06654937 -0.09185271 -0.03761685 -0.0019688641 -0.15085353 -0.22450414 -0.23876463 -0.014109481 0.06647433 0.1174159 -0.03295139 -0.08586803 0.10755523 -0.12541026 0.05334532 0.2058495 0.0049075717 0.05625734 -0.16690172 -0.028989417 -0.17217624 0.079635285 0.018218635 -0.021947533 0.0020789308 0.12571755 -0.09975067 -0.016175533 -0.1280155 -0.05719169 0.035259776 0.0168157 0.40488502 0.025048785 0.06177595 0.059409525 0.122865595 -0.15666449 0.13608004 -0.16449678 0.00071360206 0.072948836 0.015753122 0.008474847 -0.17697287 -0.07260746 0.0024306574 0.2440732 0.10805825 0.0694292 0.032908853 -0.03415445 -0.103016615 0.23046212 -0.007861614 0.02260773 0.060329575 0.044438295
26 0.066665076 -0.12551783 0.19222827 0.22605407 0.29311296 -0.15857545 0.03748036 -0.08515949 -0.20669596 -0.09879411 0.15350936 -0.02760485 -0.12393796 0.08028115 0.23558982 -0.029261364 0.08099407 0.05365401 0.14762825 0.024445388 -0.06391774 0.103351146 0.09981563 0.041661154 -0.010201883 0.18380088 -0.1029992 0.1457528 0.038411062 0.11178292 -0.15407172 0.12535478 0.010164269 -0.015921002 0.06166008 -0.17015703 0.09596914 -0.014074399 -0.045301072 -0.109335646 0.029759567 0.10183124 -0.047875226 0.016319303 0.15266584 -0.11172061 -0.01890043 0.009849929 0.08512629 0.0621623 0.12275765 -0.11795587 0.038782004 0.2414324 0.076609105 -0.08378115 0.14719246 0.20303924 -0.16115747 0.15754963 -0.07638982 -0.094373554 0.1223845 -0.072837286
59 0.10591374 -0.1165912 -0.091149665 -0.1264881 0.09422016 -0.19540447 0.0011853948 -0.028934387 -0.05426036 -0.030260332 0.11031523 -0.04451736 -0.049066037 -0.13575518 0.054939773 0.27242 0.16724136 -0.041276816 0.2714939 0.11015958 0.26016662 0.20785324 -0.117343 -0.14052698 0.0032549102 0.17927898 -0.13957879 0.1156983 0.052977417 -0.012573326 -0.09107352 -0.084231935 0.032412045 0.083645076 -0.01800061 -0.14527941 -0.032741867 0.06559302 0.24278907 0.022313189 -0.20182224 0.018948145 0.19395348 0.049671717 -0.08933651 -0.05625412 -0.049555004 -0.06363391 0.046939593 0.076946154 0.044104625 0.0054504103 0.14006159 0.06910253 0.21388881 0.041281853 -0.035954252 -0.061728172 0.012226342 0.13314289 -0.029227402 -0.08753438 -0.10552992 0.101559535
9 0.063176475 -0.07860169 0.017436774 0.077249706 0.08278017 -0.28821412 -0.061802786 -0.08282732 -0.12582915 0.106492385 0.0121678235 -0.1737701 0.15148658 0.005231359 0.06186282 0.07138966 0.15758753 -0.102536805 0.010696093 0.28782994 0.07704547 0.23946548 0.020417387 -0.12546274 -0.12587471 0.078161106 -0.16248493 0.03893606 0.009745936 -0.06646746 -0.11804722 0.08429391 -0.055323023 -0.025644302 -0.24250713 -0.23478113 -0.06880237 -0.27791116 0.03958004 -0.09831164 0.04153371 -0.015950497 -0.031776574 0.04073397 0.13147789 -0.056929316 -0.005939958 -0.0003170054 0.021089125 0.061502837 -0.058068383 -0.056929193 0.27296373 0.07393403 0.071671754 -0.092978045 0.0036465693 0.21788678 0.0031797297 0.17237471 -0.15984775 0.10833237 -0.06399607 0.05378483
50 0.26096645 -0.21319993 -0.04247445 -1.8797557e-05 0.111242086 -0.2033527 0.020637047 0.07635317 -0.18319416 -0.13411075 -0.052787527 0.0017451402 -0.056482613 0.09435472 0.11613926 0.0713583 -0.045659885 -0.15865214 -0.15583149 -0.039688654 0.134334 0.04070302 0.021568397 -0.09849589 -0.19432825 0.15510346 -0.023784284 -0.0028542515 0.14480557 -0.10188536 0.017654352 0.0708421 -0.14906862 0.091003135 0.018232077 -0.077925324 -0.021501686 0.017872322 0.24280323 0.036776926 0.040551804 -0.028857099 -0.02341584 -0.03200079 -0.02524616 -0.11714377 0.00047750623 -0.0598028 -0.105343245 0.17414759 0.027843382 0.009330426 0.048114534 0.2021497 -0.04904099 0.046398863 0.014652537 -0.085771665 -0.059394695 0.19843829 -0.12581152 0.044005968 -0.0062762364 -0.21889514
74 0.093589135 -0.10800286 0.009659341 -0.024072606 0.124580294 -0.14483276 0.13999023 -0.061563034 -0.010364873 -0.18977076 0.0772705 -0.13657025 0.05513062 -0.081273526 0.08883439 0.04243324 0.010925136 0.15958235 -0.04132918 -0.255961 0.19603704 0.25612766 0.030187516 -0.17777658 -0.108314514 0.1628703 -0.11384479 0.014578849 0.09272972 0.019160563 -0.1664138 0.045945283 -0.031027189 -0.013986969 -0.064363636 -0.06681262 -0.053662032 -0.046653703 0.14186351 -0.072943754 -0.07803516 0.105054356 -0.16236645 0.18049738 0.1547739 -0.25158146 0.052033957 -0.030522823 -0.104852036 -0.020888163 -0.07430645 0.08524842 0.09507902 0.14963697 0.053702418 -0.04515529 0.11006172 0.14945182 -0.13773063 0.05289961 0.008544015 -0.16013154 -0.23410554 -0.014863551
14 0.10108144 -0.06444679 0.31291944 0.19547603 -0.057336506 -0.1122724 -0.053711448 0.047124606 -0.060170483 -0.1360949 0.015507774 -0.12524752 -0.04665987 -0.07715913 0.059826177 0.18815044 0.14892435 -0.06996056 0.007860074 0.13508691 -0.0027675745 0.1589615 0.13223101 -0.09876306 0.06833126 0.25546935 -0.20400393 -0.045701772 0.100014836 -0.02468321 -0.14819022 0.002461077 -0.17594206 -0.023046862 -0.05965005 -0.06415686 0.05711418 0.073272794 0.09646949 0.0091746105 -0.084082 -0.00525736 -0.11579179 0.10940396 -0.07573111 -0.23538888 -0.19383767 0.086953185 0.16206382 0.059647974 0.06550606 -0.10245301 -0.069640875 0.16458187 0.08627621 0.120568916 0.06225756 -0.14845109 -0.11807601 0.13819616 -0.106873795 -0.005995856 -0.0044407053 0.034086175
53 0.05208883 -0.1299301 0.03616137 0.0967247 0.1482015 -0.08168867 0.085960574 -0.009968514 -0.054946784 -0.10998528 0.080825984 -0.110835165 -0.12785038 -0.14801961 0.2305907 0.06794033 0.14524098 -0.21178432 0.11892139 0.012882387 0.06267596 0.03377977 0.026281353 0.00032026396 -0.16697584 -0.035835233 0.008608997 0.0831011 0.06636752 0.03969434 0.12553337 0.08488098 -0.24424231 -0.005529056 -0.050036475 -0.06668581 -0.1106496 0.06772916 0.36072287 0.13096906 -0.11230948 0.13443916 -0.012210584 0.030539544 0.08453013 -0.096013285 0.09133352 -0.16693586 0.053475138 0.1717487 0.13223377 -0.08023479 0.0689887 0.12358005 -0.12872936 0.012256482 -0.102448754 0.08570649 -0.22523788 0.08857513 0.05545529 -0.07778354 0.05511903 -0.021567091
77 0.1690318 -0.074516594 -0.072798744 0.05618626 0.08509567 -0.04572741 -0.040811855 -0.12483996 -0.0726297 0.14720622 0.10169927 -0.0038787385 -0.20770621 0.06568735 0.25086728 0.14804111 0.15283406 0.0091244755 0.09431851 0.034006193 0.09535736 0.24560004 0.18080781 -0.06096636 -0.019417102 0.025824165 0.0591467 -0.16620162 0.18335575 -0.13402545 -0.19439769 -0.02602404 -0.11598839 -0.15592062 0.029308606 -0.08021582 -0.05049412 0.17005634 0.054898232 -0.06350935 -0.11934389 -0.061145157 -0.01252435 -0.092357434 0.030266084 -0.05417243 -0.08707921 -0.08057177 0.08098487 0.1575576 0.069679566 -0.20945263 0.15598968 0.020793585 -0.23806353 0.096031 -0.005301454 0.013607324 -0.16999866 0.12800679 0.057106044 0.05882827 -0.04789424 -0.08539705
5 0.12430731 0.0023784428 0.012716699 -0.022064257 -0.048244253 -0.05464207 0.021881001 -0.028658938 -0.028848434 -0.15048715 -0.092985615 0.017948853 0.024872866 0.10845941 0.058954854 0.16897637 0.121570386 -0.08132016 0.047241136 -0.0027621528 0.09103829 0.14641194 0.0069146133 -0.34234208 -0.24758996 0.12572338 -0.060730185 -0.013195287 0.23192094 -0.07655106 0.11914518 -0.07448054 -0.0039027168 0.078938305 -0.21552347 -0.082951 -0.07120907 -0.042613506 0.16229784 0.03749458 -0.0626687 0.025657667 -0.004037599 0.00062145875 0.14205821 -0.20451622 0.049888786 0.06159381 0.14419848 0.11928466 -0.11234381 0.019909231 0.06696789 0.18645556 -0.043190368 0.14704135 -0.038213797 -0.07955987 -0.2368381 0.064136356 0.01107689 -0.10195202 -0.098829314 -0.024362937
47 0.1456711 -0.2538747 0.037611082 -0.015768604 0.046472844 0.024990337 0.011836369 0.026857598 -0.0737216 -0.027810765 -0.0734107 -0.06820311 -0.17136294 -0.0720892 0.14224146 -0.005504894 0.03468716 0.09379204 -0.079657786 0.02746356 0.14105727 0.08767495 0.10739603 -0.16509058 -0.0633651 -0.041696556 0.1629245 0.082604565 0.09736868 -0.035855666 -0.18234923 0.13058491 -0.056595262 0.14954877 -0.09604566 -0.19465783 -0.04837976 0.029521964 0.19704372 0.014282575 0.11288203 0.025575856 0.06830414 -0.12443508 0.103203826 -0.27826118 0.08009514 -0.1597245 -0.09783684 0.0021600267 0.043523036 -0.025000766 0.2578012 0.13845445 -0.080611154 -0.001622279 -0.07296671 0.018031284 -0.14150427 0.12903942 -0.11866443 -0.0937994 0.07986274 0.16813408
21 0.1792688 -0.06846687 -0.10358207 -0.047848318 -0.017956719 -0.026067656 0.0023241865 -0.19991995 -0.18004489 0.0042697536 -0.099252105 -0.30761963 -0.14825778 0.18855765 -0.073707886 0.20686163 0.0721287 0.1273949 -0.02736294 0.044496942 0.15393439 0.04545464 0.040418707 -0.11474108 -0.18494387 0.03532988 -0.15219502 -0.051855132 0.027362155 -0.03382492 -0.055795353 -0.020551357 0.018793382 -0.03516435 -0.124012545 -0.010197319 0.0009137381 0.098344974 0.04951812 0.09034091 -0.17511398 -0.12431318 -0.047494303 -0.05596346 0.1268251 -0.2159013 -0.1522244 -0.0313708 0.00028182685 0.22890149 0.00794092 -0.19159205 0.12027552 0.16188025 0.11633747 -0.00026383682 -0.030487603 0.050828386 -0.052711293 0.09397476 -0.07923767 -0.043191988 0.12555063 0.020931784
15 0.2186476 -0.009939696 0.019292414 0.013042923 0.08282532 0.016705194 0.07386284 -0.08502916 0.10562004 0.0029026985 0.13107626 -0.024898803 -0.22994499 -0.07217163 -0.022119856 0.111991934 -0.017106196 0.12860925 -0.12169322 0.16098206 0.14662685 0.29995272 0.083623074 -0.12495137 -0.021812143 0.16738003 -0.06260023 -0.012820441 0.0044228784 0.02591228 0.049338482 0.010769055 -0.020959754 -0.08022429 -0.11173567 -0.20442554 0.02953996 -0.055304635 0.13106342 -0.0046163537 -0.13347152 -0.090395294 0.10114793 -0.15406115 0.20528339 -0.07454133 0.07914885 -0.15401691 0.033068772 0.18972602 0.014145552 -0.1999395 -0.08473906 0.27945518 -0.08176595 0.046603277 0.06437684 0.03187933 0.04881671 0.2178681 0.013124353 0.09059236 0.18628769 -0.034128964
56 0.14858559 -0.23029749 0.02913803 0.09063757 0.09655962 -0.022797015 0.06443397 -0.13066429 -0.06612384 -0.11418478 0.07806148 0.006221033 -0.0074585965 0.026349377 0.010275988 0.2055679 0.19168459 0.12079595 -0.20949449 0.061685815 -0.16678597 0.13014284 0.111189105 -0.06676013 -0.12892802 -0.0094321165 -0.1947864 0.03793932 0.02490155 -0.07316778 -0.06486264 -0.0028240634 -0.1633701 -0.07798499 -0.03955334 0.040615745 0.026852187 -0.059405778 0.12595871 0.14194667 -0.025626918 -0.0861042 0.028249994 0.05574843 0.01950983 -0.09043772 -0.035592854 -0.10276753 -0.008523401 0.10113572 0.060237214 -0.2434588 0.23159596 0.15525806 0.2381114 0.08972797 0.13831373 0.107509024 -0.1712844 0.16864939 0.027453555 0.010148527 0.024495754 -0.13809828
84 0.21356599 -0.16673648 0.025168164 0.01647945 0.07954704 0.015163415 -0.020697914 0.004752095 -0.06518895 -0.060014673 -0.0656885 -0.21075219 -0.063814424 -0.07146102 0.21165532 -0.0009007746 0.10382121 0.2796125 0.041024655 0.010302653 0.0074133165 0.22299969 -0.010228047 0.027742455 -0.19284481 0.12416315 -0.050589688 -0.010697022 -0.014131443 0.050414547 -0.0442318 -0.038858593 -0.17162979 -0.055843152 -0.286117 -0.076842345 -0.24118875 -0.048818987 0.11148585 -0.13525994 -0.00756568 0.05943089 -0.075457424 0.042634014 -0.027314348 -0.14490704 0.0054986565 -0.1288732 0.06671559 0.20464604 -0.011744868 0.055069618 0.02382456 0.07005225 -0.028004125 -0.03838216 -0.01882175 -0.059477232 -0.10056475 0.21962537 0.09894571 0.012398803 -0.34898278 0.117271155
54 0.02570885 -0.26898804 0.1627719 0.16718653 0.21307962 -0.15517485 -0.051994003 -0.22146909 -0.20772512 -0.13464129 -0.020810718 -0.08222165 -0.15162696 -0.08894591 0.09433874 0.12420223 0.08173506 -0.024900947 0.0146939745 0.11909396 0.11767016 0.22351496 -0.03813917 -0.08667743 0.0010336958 -0.08218484 -0.15229534 0.024965256 -0.051997874 -0.09213581 -0.031680368 0.09567364 0.016909998 0.07657945 -0.20774186 -2.5819145e-05 0.016531838 0.013749308 0.11410828 0.0010953189 0.068202265 -0.03176677 -0.01623517 0.0008704671 0.014775249 -0.07746601 -0.022066014 0.021412773 0.18366188 0.30583394 -0.02186867 -0.11355163 0.007822485 0.056610987 -0.034725405 -0.101727575 0.035085715 -0.1198934 -0.096830435 0.10045323 -0.03128032 0.13775791 -0.07163676 -0.11263016
24 0.22942756 -0.121410176 -0.06213471 0.015994245 -0.002797586 -0.21497373 0.11176291 -0.18884227 -0.17007253 0.068804726 0.15307279 -0.1742533 0.017685028 -0.08577693 0.21340092 0.20832221 0.005806399 0.1913013 0.024505151 0.118970275 0.15693615 0.1795345 0.14376406 -0.173283 -0.042826816 0.07107905 -0.16263472 0.09236643 -0.13932158 0.004342449 0.13540341 0.009331027 0.043226704 0.03170025 0.022120731 -0.065777235 0.02021906 0.015919445 0.0599052 0.13350652 -0.16169931 -0.009144777 0.052619394 -0.0048636887 0.036825933 -0.20066768 0.11615397 -0.007549543 0.09554124 0.16848595 0.029381247 -0.087887645 -0.020197183 0.025039287 -0.006426711 0.19009604 0.041322004 0.032796618 0.054473277 0.13376324 -0.047061455 -0.030134918 -0.036176737 0.07485461
82 0.24488273 0.003380223 0.110827714 -0.002082745 0.01587915 -0.019892596 0.13435018 0.061386883 -0.09935059 0.24384573 0.10407004 -0.14003214 -0.026795523 -0.06410766 0.02600806 0.13355033 0.16482985 0.13137 -0.024216488 0.17922677 0.046285417 0.22065762 -0.072779365 -0.14930022 -0.13604242 0.12754206 0.0178482 -0.23359519 0.0011742308 -0.097520135 0.0953692 0.12193455 -0.06700636 0.009669781 -0.06692726 -0.0492395 -0.009341231 -0.072589755 0.015120487 0.011482293 0.026385086 0.014189863 0.019185293 0.0039154994 0.27619678 -0.30446103 0.018312689 0.073020965 0.02567721 0.079038516 0.05194745 -0.20308669 0.1760181 0.09406478 -0.015521989 0.09698983 0.21001858 0.046947878 -0.12154688 -0.028327117 -0.042013593 -0.11994487 -0.12618294 0.12794523
89 0.15252359 -0.054572117 0.23918545 0.14346595 0.14956084 -0.041681517 -0.041504286 -0.15224302 -0.14020269 -0.057356205 -0.17443916 -0.14201015 -0.2028073 0.057537585 0.2177912 0.12733208 0.102396406 -0.013583394 -0.12713028 0.06184446 -0.08657615 0.14278594 0.0033042342 -0.017815147 -0.09573618 0.22222339 -0.040060986 0.046207745 0.009060029 0.071933635 0.032666177 0.23894411 -0.052020762 -0.21395855 -0.077882506 -0.06289041 0.02343264 -0.001056885 0.15305305 -0.09911362 0.0008185399 0.11279968 0.10334458 0.030149253 -0.10875926 -0.16822012 -0.065578036 0.122352175 -0.20757182 0.07928913 0.027803171 -0.2407222 0.153264 0.087928995 0.092962846 0.010351567 0.10272436 -0.0166118 -0.20655449 0.1850662 0.049534567 0.13985561 -0.11072149 -0.16240154
27 0.152992 -0.14457321 -0.16946216 -0.03690117 0.06394724 -0.3199456 0.08493944 -0.04487416 -0.24697183 -0.007941512 0.056709807 -0.033228543 -0.025362609 0.103746325 0.122091174 -0.013179854 0.11681116 -3.27607e-05 0.050839085 0.14926967 -0.079383254 0.04519678 0.04939354 -0.17633337 -0.18881372 0.13851695 -0.027993068 -0.035888433 0.11809774 0.022059282 -0.33337668 0.03494701 -0.18122898 0.26617572 0.0066971136 -0.054723524 -0.05628854 -0.09803288 -0.11320899 -0.007991013 -0.011139764 -0.012863998 0.049938444 -0.012544956 0.004951743 -0.08713451 -0.101490594 -0.012227477 0.031735063 -0.06278729 -0.030456193 -0.13270508 0.18588184 0.18204497 0.11438805 0.016760489 0.12479511 0.051778954 -0.13520636 0.1625697 0.1176757 -0.10969023 -0.028464148 -0.095201604
34 0.07368302 -0.12477489 -0.043192808 0.044206083 -0.03156838 -0.069476 0.12074179 -0.092029996 -0.12450262 -0.091647044 -0.0493784 -0.28305128 0.06531519 -0.0013795244 0.4667674 0.1549931 0.057101868 -0.097753294 0.095935196 0.056963705 0.10358025 0.22753905 0.23704474 -0.1546365 -0.03692544 0.06329758 -0.07709145 0.012298716 -0.07972233 0.12793556 -0.07779204 0.052175358 0.032158747 0.06723496 -0.17962602 0.009409626 -0.1774676 0.14574178 -0.012205577 0.004393786 -0.01908738 -0.1098562 -0.116093434 0.02005266 -0.0964687 -0.13676894 0.09701962 -0.0471439 -0.12473898 0.2614029 0.04096852 -0.00041289724 -0.027041681 0.12888637 0.07616553 0.059068404 0.1047233 0.009665993 0.1327723 0.14559332 0.029551135 -0.034864604 -0.077838704 0.09321781
35 0.20381145 -0.1400454 0.051024415 0.0025686286 0.18374948 -0.09707494 0.07810376 0.10127222 -0.18745172 -0.0208081 0.11775317 -0.1411548 -0.13744651 0.089012265 0.058849186 0.2711438 -0.050942052 0.16960998 -0.06810485 -0.013963696 0.06347325 0.10064085 0.012686227 -0.15850928 -0.044971757 -0.024230907 0.0070774634 0.05757952 0.30616078 -0.01148367 -0.15413429 -0.104633495 -0.011703581 0.1015561 -0.04119677 -0.061787296 -0.03594951 0.033380777 0.09502134 0.03247244 0.07844718 -0.16233169 -0.09100241 -0.023810191 0.19025357 -0.03539223 -0.006824373 -0.0199895 0.1449181 0.06766164 -0.056637347 0.00459574 0.02932487 0.07764966 0.07474988 -0.10154643 0.15150096 0.06535158 0.01884378 0.2232723 -0.14715567 0.030599313 -0.038198486 -0.10403801
11 0.28256103 -0.13427196 0.12002467 0.118847504 0.10646008 -0.12923926 0.05852018 0.09094954 -0.2930739 0.07725572 0.005851917 -0.19801095 -0.107328326 0.10875071 0.054729197 0.059431233 0.14584304 0.124965094 0.11014402 0.16922235 0.25842172 0.026412496 0.039453253 -0.042449106 -0.18892327 -0.08316044 -0.18772268 -0.05019397 0.026881693 0.0372529 0.076814786 -0.026909405 -0.17624447 0.14998256 -0.08512901 -0.12525676 -0.012238952 0.15926999 0.11990609 0.15280923 -0.09312262 0.10135299 -0.017264176 0.0013616729 0.017958382 -0.07942036 0.02608276 0.04201398 -0.053132758 -0.017057309 0.15889663 -0.011259979 0.13899246 0.083085254 0.030463368 -0.034244996 -0.014982908 0.13746503 -0.048773758 0.03023638 0.14544259 -0.10786937 0.04164826 0.074104704
71 -0.0094705345 -0.2554725 0.11024319 0.07446611 0.008047875 -0.20493631 0.08716235 -0.049634293 0.01725025 -0.12122516 0.09464878 -0.26978263 -0.12865159 0.14364214 0.082126625 0.16207623 0.0825736 -0.059494298 -0.14690909 0.057383426 0.050429203 0.2992921 0.115870655 -0.1814941 0.07902498 0.26507807 0.0799314 -0.027155114 0.10919951 -0.19959708 0.025999049 -0.052090466 -0.01480993 -0.030956948 0.071560614 -0.1503681 -0.1636928 -0.14558633 0.26201913 -0.050052114 0.07348164 -0.051799484 0.011102687 -0.016154284 0.096195295 -0.103422 0.09678037 0.06052739 0.053978126 -0.11270368 0.04780178 -0.0010130022 0.007336915 0.09981239 -0.035638575 0.09186292 0.19358449 0.10409202 -0.10940426 0.12863809 0.15582898 0.041222308 0.12030588 0.018151553
16 0.20984675 -0.13942589 -0.13965495 -0.12429732 0.030200437 -0.042967673 -0.0030946243 -0.017319601 -0.11558225 0.025530847 -0.08496074 -0.15868062 -0.004419883 0.07409323 0.29524568 0.18151839 0.11643872 0.10578862 0.13034286 -0.09935771 0.19594438 0.23430508 0.08108597 -0.24209717 -0.08255896 0.17205197 0.00030103844 0.017228954 0.15435429 -0.06569406 -0.021658227 0.089680955 -0.18346839 0.026673997 0.0870695 -0.03235327 0.20496157 -0.1309145 0.12256435 0.18241863 0.12926278 -0.11246509 -0.098504215 0.12585066 0.0043656053 -0.17197755 0.06543154 -0.14378841 -0.15264913 0.047539603 -0.017101094 -0.032889295 -0.0034354962 0.23814623 -0.028927062 0.08950726 -0.14779434 -0.13452958 -0.052279186 0.020288976 0.084955394 -0.101011366 -0.06574038 -0.09041779
6 -0.006236865 -0.24619754 -0.07843612 -0.019056609 0.04162043 -0.23421478 0.08969003 -0.038950898 -0.18598224 -0.127794 0.044506148 -0.14793678 -0.21559547 0.10457797 0.040220886 0.24133143 -0.057084095 -0.019689407 -0.094452925 0.33987933 0.05027996 0.12819777 0.08541844 0.005265896 -0.10890123 0.16558883 -0.10242207 0.06863483 0.0435493 0.0090681445 -0.055006087 -0.14805742 0.085724585 -0.09307492 -0.030691156 0.06435422 0.012045628 -0.056098133 0.190855 0.081633516 0.063410416 0.08062801 0.03031983 0.13934845 0.15659858 -0.063325785 0.06984003 -0.120285295 0.15765916 0.19910878 0.00474982 -0.12004347 0.035536785 0.19886293 -0.13758738 0.078701444 0.20108327 -0.03935624 -0.0058163945 0.006677598 0.08087032 -0.16371435 0.049154993 -0.0035917747
78 -0.09710639 -0.07925731 0.12468836 0.017157426 0.0009705956 -0.22441822 0.07610508 -0.023461662 -0.23214504 -0.013378499 0.024614478 -0.18567762 0.07560689 -0.020808289 0.030041294 0.079859614 0.17857496 0.059760142 -0.2087126 0.041933544 0.30288482 0.17180362 0.15845129 -0.1301653 0.05814934 0.23881298 -0.028816124 -0.08195958 0.06396102 -0.08655365 -0.09314863 -0.0951628 -0.042884402 0.08793451 -0.12401351 -0.055698942 0.005831345 0.16706161 0.027628284 0.04798941 0.16673054 -0.008157304 0.057015933 -0.24070679 0.016774261 -0.06806197 -0.0014835865 -0.09377695 0.03218131 0.23513512 0.1188581 -0.057093035 0.06982848 0.02871192 -0.068156034 -0.1356235 0.10902126 0.05130779 -0.26610458 0.14060724 0.05299979 -0.17332695 -0.20526598 -0.07657582
65 0.2792407 -0.1348635 0.15011726 -0.015510402 -0.09570835 -0.013348293 -0.00034554274 -0.011657038 0.009230474 -0.09828858 0.046087295 -0.24657002 -0.19203548 0.05363512 0.003761627 0.12686658 0.22316325 0.119937286 0.03717734 0.09527263 0.1603761 0.06942194 0.19878247 -0.14276178 0.03478482 0.013558711 0.015546953 0.011967847 0.10168565 0.021543043 -0.02402038 0.13744932 -0.16328321 -0.0064115245 0.010153204 -0.027060578 0.219161 0.032026265 0.0014322238 0.16523406 -0.061909046 0.019706136 0.14446573 -0.06361749 0.019420896 -0.07826576 0.011828498 -0.022110881 0.09695584 -0.065476336 -0.12505668 0.009772727 0.15425201 0.19271338 0.09055269 -0.00010478668 0.15409726 0.045529842 -0.24806745 0.24759167 0.015378046 0.055262186 -0.04324521 -0.0072783567
67 0.087788306 -0.17484052 -0.058572955 0.108169466 0.033490524 -0.007907032 0.057550937 0.10324607 -0.06755381 -0.08230821 0.035474822 -0.14427584 -0.17641816 0.030485973 0.3090019 0.12447412 0.03258012 0.10231833 0.15902627 0.017866192 0.111027464 0.24750437 0.10417214 -0.14090784 -0.1150904 0.0360186 -0.12827246 0.14582136 -0.0999357 0.08285971 -0.22079007 -0.08093943 -0.02538356 0.08791739 -0.14778075 0.06910316 -0.09006646 0.066632226 0.05241605 -0.033365596 0.032809917 0.08547075 -0.025610399 -0.072670646 0.0641445 -0.16457222 -0.04799792 0.14913988 0.12423915 -0.101310715 0.09119392 -0.27803618 0.07912603 0.106465615 -0.029737141 -0.23819007 -0.12956993 -0.10255427 -0.12720047 0.1607249 0.021888593 0.16847323 -0.13198361 -0.022050424
20 0.06724613 -0.05393137 0.063908935 -0.116612114 0.16879654 -0.06275313 0.019281484 -0.09537723 0.038579833 -0.08026391 0.13116972 -0.14931957 -0.17330736 -0.033871043 -0.02434093 0.25730127 0.17226562 0.0005532263 0.1777757 -0.003912099 -0.09039331 0.28146058 -0.019682419 8.491811e-05 -0.16165869 -0.034893926 -0.03725545 -0.14191963 -0.049544197 0.009181635 -0.17768934 -0.12534371 -0.18583806 -0.09036927 -0.13229944 0.024467902 -0.16977094 -0.08675929 -0.018564904 -0.092628494 -0.047111806 -0.19231255 0.014545105 -0.035563976 0.0493833 -0.12238179 -0.07961329 0.105618484 0.08498756 0.18205385 0.025843168 0.0109896455 -0.030881684 0.198396 -0.083192445 -0.16253765 -0.022214208 -0.034950614 -0.11701904 0.37153772 0.04536462 -0.14611885 -0.04614817 -0.07725509
94 0.2204532 -0.27207595 -0.081928365 -0.015795246 -0.084869735 -0.119872056 0.08351298 -0.05671344 -0.09579178 -0.0761209 0.1271156 -0.021068871 -0.030550865 -0.049868498 0.049328655 0.11868856 0.070999146 -0.16766046 -0.11911739 0.08806215 0.12833373 0.046644278 -0.03857801 -0.083577976 -0.011764322 0.11536816 -0.070098236 -0.1925931 0.28963897 0.03445474 -0.15442814 -0.049163017 0.035182644 -0.018265706 -0.30429488 -0.13877277 -0.19517289 0.21873806 0.061112147 -0.054359388 -0.032903858 0.013279574 -0.050404035 0.044971503 -0.103069656 -0.029338123 0.06460437 0.030087402 0.03682751 -0.028309789 -0.07925809 -0.16504036 -0.0003960274 0.2715644 -0.01781602 0.020333834 -0.05393624 0.15023866 -0.21623565 0.17901435 0.032860447 -0.05461077 -0.053389482 -0.082430266
63 0.0643794 0.07425519 0.0657578 -0.11143386 0.20993206 -0.02731008 -0.004052398 0.097189546 -0.19584955 -0.099376924 0.11893582 -0.2786708 0.06836761 -0.09054021 0.037863653 0.044496834 -0.09295675 0.11460442 -0.14103933 0.049322244 0.014390166 0.10344283 0.1765855 0.0041965195 -0.03690366 0.044345733 -0.14462034 0.045016732 0.19787034 0.26740772 0.11143337 0.11941783 -0.04006779 0.009363567 -0.07256689 -0.10194332 -0.07929711 -0.062398512 0.13143913 -0.02988051 -0.24508333 -0.053167682 0.06954958 0.106603175 0.054470308 -0.3802902 -0.022196174 -0.030937683 -0.009053522 0.10848304 -0.008220997 -0.14639722 0.08542353 0.2627877 0.11358749 -0.01680231 -0.05641151 -0.10114511 0.0006811244 0.31081054 -0.0758744 -0.09787649 0.024437461 0.17832659
93 0.14831138 -0.06902426 0.0012542141 0.1052692 0.14207497 -0.1813904 0.15888704 -0.021780647 -0.070506826 -0.09962495 0.007941038 -0.081193015 -0.20885246 -0.1581934 -0.11094162 0.12201047 -0.13041689 -0.010660475 0.02329155 -0.015865002 0.089983694 0.3452037 -0.014254211 -0.1404287 -0.17108667 0.12944509 -0.09733366 -0.06727337 0.094903484 -0.016706588 -0.06572226 0.026679425 -0.037353896 -0.11876118 0.03948948 0.0007653439 -0.24458359 -0.1108255 0.041289207 -0.07118874 -0.20933679 -0.0653497 -0.18001197 0.002354951 -0.1661484 -0.19975798 -0.026559606 0.0248209 -0.038239937 0.08738179 0.11312382 0.062835485 0.0073439986 0.18112521 -0.12098005 0.061251786 0.12195016 -0.012706595 -0.10863669 0.1862595 -0.022272239 -0.18717723 0.04211775 0.044061698
31 0.17938423 -0.2952976 0.056344327 -0.12437745 0.0707952 -0.12378587 0.025534004 -0.00012820061 -0.051928546 -0.10770968 0.24706344 -0.2508351 0.0875708 0.01830223 0.057156205 0.27882442 0.078258574 -0.011179348 0.07591146 0.0054413606 0.043965314 0.06160662 0.21842279 -0.17473115 -0.07562019 0.13647798 -0.06474354 -0.04332569 0.15014383 -0.0023016578 -0.015308683 -0.0907764 0.008643029 -0.108928345 -0.16400962 -0.11932347 -0.025253553 0.09469327 0.22123289 -0.07032717 0.13219503 -0.053677008 -0.12954737 0.050588023 0.18834381 0.023424046 -0.10139354 -0.08126448 -0.18164538 0.0024587493 0.14028785 0.0902429 -0.03361738 0.10672062 -0.050218243 0.026814742 0.007918043 0.027747037 -0.15587649 0.088054635 -0.04320101 -0.08754025 0.09447999 0.014181966
10 0.2271746 -0.11242352 0.17623876 0.16617347 -0.08084736 -0.08114625 0.03388515 0.09154757 0.034764692 -0.07401848 -0.020672632 -0.05105336 -0.09658701 0.003028454 0.10269 0.2271554 0.19961902 -0.0012601324 0.017743943 -0.006374678 -0.01499859 0.22977452 0.05784822 -0.07082627 -0.077570334 0.12989955 -0.16059935 -0.15128022 0.2296674 0.030372648 -0.11040993 0.019051615 -0.0463356 0.09649538 -0.115811884 0.16377696 -0.15406267 0.0073032374 0.14524867 -0.068153955 0.120148785 0.028809985 0.10191538 -0.13938087 0.060423758 -0.19407806 0.016873209 -0.19645233 -0.037849154 0.062929764 0.14277619 -0.116754465 0.036838368 0.25765878 0.21657251 -0.108756214 -0.069662005 -0.08145831 -0.022226814 0.10075892 0.14140536 -0.11114505 0.0502287 0.09350988
55 0.2521299 -0.33632442 0.048023816 0.00072628434 0.04181118 -0.09486762 -0.014871225 0.021003174 -0.15894888 0.12354871 -0.1292931 -0.0024057697 -0.16075568 -0.10530498 0.031680074 0.039572176 0.11505874 0.20471361 0.074692905 0.089345515 -0.036063407 0.03965575 -0.0201821 -0.16576985 -0.054461 0.07335549 0.009884657 0.06993989 -0.015115007 -0.05772372 -0.04497109 -0.010786934 -0.21477695 0.16676305 -0.15281284 -0.2875385 -0.07449369 0.053439654 0.19068432 0.04915255 -0.037322383 -0.022354003 0.023440087 0.18452959 0.1782724 0.005358375 -0.07031035 0.17840269 -0.15165846 0.08724219 0.06384392 -0.10388023 -0.0110682575 0.19824415 0.017905103 0.032978002 0.13012622 -0.02024863 -0.052100178 0.18941702 0.011697542 0.10980114 0.004146873 -0.036647268
98 0.16471015 -0.033933405 0.07687976 0.06593927 0.14793397 -0.060360964 -0.13951667 -0.17303939 -0.05125567 -0.029505312 0.05946964 0.030860374 -0.09584932 0.007397266 0.1360097 0.12995824 0.041329794 -0.021927947 0.10639914 0.36339507 0.06278477 0.03894091 0.36709145 -0.1039764 -0.06610892 0.123320796 -0.14472918 0.056836702 0.03525919 0.014944718 -0.14001124 0.022589348 -0.02685365 0.058586854 -0.06428822 -0.19574496 -0.10194255 -0.1309558 0.013081377 0.28076977 0.13495497 0.02271196 -0.20134349 -0.10472875 -0.051795512 -0.2521566 -0.18769331 0.01994469 -0.01772102 0.12770872 -0.08684787 0.0061282604 0.066557586 0.16882499 -0.18672937 0.060882576 0.060634416 0.015460704 -0.10891038 0.20769633 -0.096490175 0.0042732484 -0.030903142 0.20992331
69 0.050965805 -0.03864012 -0.15426485 -0.039503172 -0.05815573 0.0840685 0.08571381 0.12319282 -0.1843274 -0.0432634 0.08952607 -0.025083072 -0.16832465 0.007860598 0.10745866 0.065960295 0.01902323 0.109398656 0.0023181331 0.12692024 0.043664653 0.26482362 -0.0890366 -0.22373447 -0.18521868 0.15456769 -0.07081128 -0.020562438 0.1949122 0.08585627 -0.049342908 0.0069638025 -0.009103237 0.0512841 -0.15909721 -0.12989889 -0.053614456 0.14846683 0.15126379 -0.05576757 -0.24335758 -0.15808198 0.0066123866 0.11572827 0.11932849 -0.21879444 0.007691278 0.115041554 0.011277385 0.11151682 0.09324015 0.002412521 0.04019531 0.32013503 0.004674284 0.07329356 -0.020323927 0.050781906 0.018237082 -0.016525408 0.014957781 0.07202486 0.052364778 -0.07608287
22 0.14157486 -0.07232101 -0.024373371 0.0016060637 0.092459954 -0.09717191 0.07850502 -0.082589366 0.024326593 -0.05390734 0.051269807 -0.15830427 -0.13638139 0.087069236 0.12576652 0.253074 0.09210825 -0.0206835 0.06935211 0.07934508 -0.0039917757 0.2115671 -0.034681335 -0.049832523 0.11759849 0.19318286 -0.07150941 0.019729042 0.062410183 -0.07792052 -0.16439146 0.095049135 -0.052524466 -0.023280293 -0.14797477 -0.10583697 -0.13417809 -0.0945636 0.22005302 0.23803288 -0.100563206 -0.03685033 -0.01281987 -0.17994046 0.098222755 0.046921335 0.0021704095 -0.0953859 -0.03330926 0.23670575 0.05209951 -0.26617527 0.33677498 0.06784834 -0.09162494 -0.08856497 -0.19741225 -0.068754256 -0.10150079 -0.08491927 0.040954813 -0.11910335 0.18287832 0.07010841
38 -0.088497445 -0.07594475 -0.043512437 -0.052429833 0.043055058 -0.1795624 0.07795681 0.17592488 -0.25348714 -0.03320647 0.1535782 0.011666366 -0.05135046 0.01689177 0.20550887 0.20410869 0.088956274 0.124730304 0.12127738 0.25181594 -0.019669859 0.14012724 0.045059342 -0.34886214 -0.016002433 0.025369423 -0.16633667 -0.007894567 0.18053703 -0.01109498 -0.08925683 0.10637862 -0.017863415 0.12276117 -0.11207673 -0.1302174 -0.12290322 -0.053491242 0.20764953 -0.04128962 0.050467484 -0.033392634 0.06328968 -0.116765805 -0.02440752 -0.1327269 0.06809324 0.080169275 -0.12281586 0.099778764 -0.029562658 -0.13568963 -0.0807977 0.079431705 0.0183691 0.13984008 -0.10853044 0.14836232 -0.22148938 0.018980918 -0.0030907586 0.14040099 0.13953815 -0.00016665924
51 -0.04575595 -0.23190929 -0.048621915 -0.06278835 0.0049120346 -0.048837356 -0.09567252 0.062437046 -0.06396706 0.016831467 -0.022320418 -0.3409868 -0.2172351 -0.1110437 0.03689961 0.04419071 0.09407752 -0.0281622 0.04301694 0.15531856 0.11009438 0.19488037 0.12449262 -0.07421456 0.048527364 0.02769871 -0.18698038 0.05901572 0.21704866 0.10900949 -0.035853278 -0.07379286 0.04351233 -0.050047085 -0.028498698 -0.076824374 0.17751397 -0.04556685 0.13074382 0.05582923 0.14070061 -0.038025104 0.028485427 0.2825069 0.30286458 -0.1237872 0.08573606 0.14581276 0.10984238 0.117937475 -0.034331083 -0.17840844 0.17246108 0.17819485 0.021849614 -0.13707584 0.008116359 0.05460094 0.08154364 0.23066373 0.11115143 -0.018969538 -0.038800105 -0.04605875
72 0.3327125 0.021023434 -0.022309702 -0.14321594 0.074335195 -0.09048169 0.14280134 -0.07525695 0.02055934 -0.10799734 0.04704617 -0.14554372 -0.031984396 -0.037386276 0.16891302 0.23864952 0.11296536 0.05105616 -0.07406366 0.19059488 0.24327324 0.1289244 -0.030529361 -0.07043198 -0.004805123 -0.04536665 -0.09258927 -0.0022124774 0.06405684 0.18175553 -0.15642726 -0.1264829 -0.10371625 0.07334455 -0.08696406 0.057898972 -0.04628141 -0.013776454 0.14924484 0.06469127 -0.013918725 0.04272644 0.13529707 0.100923784 0.06173593 -0.27985352 0.25317514 -0.08121982 0.062147234 -0.10167643 -0.066513024 -0.09591732 0.22059007 0.06772081 0.101084374 0.008306279 0.1994519 0.048998363 -0.07802056 0.07507419 -0.23165151 0.01497423 0.018659383 -0.0036821947
4 0.15906309 -0.28881544 -0.096978985 0.018520202 0.05926087 -0.1786852 0.03347867 0.0448992 -0.14800742 -0.03494252 0.17977358 -0.33292505 -0.12989856 0.0746131 0.103281766 0.21512629 0.06063021 0.0907043 -0.01632514 -0.21847938 -0.11508112 0.2394677 -0.021343585 -0.025054656 0.04540778 0.16698875 -0.055715173 0.12253631 0.08905103 0.04791926 -0.13852328 -0.053759344 -0.023394428 0.03356476 -0.21747135 0.07698222 -0.14654052 -0.09082654 0.09307115 -0.08474039 0.102776095 0.03939088 0.036393523 0.06648155 -0.058912966 -0.13641293 0.09608148 -0.04008181 0.03818684 0.067296885 0.10343241 0.23295504 0.094163485 0.13208163 0.14829314 0.11049805 -0.16506805 0.1046714 0.056080155 0.25746962 0.12425917 -0.034809195 0.0015899044 0.07344367
25 -0.054174844 -0.10371091 -0.037963815 0.2205931 0.16137634 0.014951286 0.19519356 -0.01512015 -0.08177289 -0.050583705 0.11682234 -0.12085245 -0.2551227 0.031333707 0.09354955 0.10710616 0.14163998 -0.1431575 0.07830741 0.031939697 0.021954522 0.045307342 0.16695908 -0.15541309 -0.19953717 0.12859188 -0.029202051 -0.010336023 0.10967434 -0.12931639 0.13384376 0.10279816 -0.04284388 0.20434447 -0.056867607 -0.033131532 0.044849284 0.18249527 -0.10763633 0.1341417 0.17524192 0.05372801 0.16680911 0.07930135 0.094027534 -0.16279112 -0.074548215 0.030608222 -0.0022383593 0.28560793 0.11385415 0.080121204 0.03680573 0.22755505 0.045539342 -0.007731671 0.0959086 0.19222045 -0.10228182 0.14261462 0.01234886 0.046359792 -0.21643509 0.03991825
40 0.05719994 -0.15688081 0.06758026 0.08724088 0.20679818 -0.04450813 0.039591253 -0.07827588 -0.026251115 -0.13788515 0.2252404 -0.17164707 -0.004040848 0.080142014 0.12735164 0.05467703 0.12513953 -0.05652868 0.19555482 0.115430474 0.15803699 0.039128564 -0.049784873 -0.12397103 0.074610114 -0.15444894 -0.217587 -0.0012642044 0.03583048 -0.171324 -0.093203545 0.11254107 -0.0020680695 -0.0657826 -0.06622893 -0.16147535 -0.09760973 0.050390944 0.12038153 0.08652013 -0.13641964 -0.10831945 0.042707883 -0.027072841 -0.01673699 -0.082308285 0.118542165 0.03608291 0.1652073 0.22511446 -0.05007013 0.12379187 0.111628704 0.3966249 0.090599544 -0.06970873 0.11067679 0.0453755 -0.13159978 0.038886625 -0.17305474 0.06020598 0.023080975 -0.085992746
46 0.12079479 -0.32265955 0.08601485 0.0060517015 0.15414299 0.060192656 0.021860277 -0.04519117 -0.062192615 -0.09156191 0.030316096 -0.13926792 -0.13464051 0.025397263 0.15041487 0.16436706 0.066789 -0.050942272 -0.04055785 0.23622943 0.17519274 0.36004 -0.06989488 -0.012930377 -0.027315555 0.12902574 0.030644428 -0.05591601 0.09191946 0.14719383 0.022077741 -0.023409514 0.08632951 0.14122804 -0.14247507 -0.20530951 0.01656552 0.11823696 0.17536478 -0.06542856 -0.3161039 0.10756886 -0.09925579 -0.069304556 0.09709203 -0.14486164 -0.06026357 0.009364833 -0.15761895 -0.13499735 -0.015904555 -0.014694381 0.030208113 0.0269495 0.007989993 0.062641725 0.124992326 0.07093501 -0.0047764117 0.16069216 -0.0884953 0.078045756 -0.03290235 0.11960407
44 0.20604254 0.09631172 0.030524543 0.07397426 0.049017295 -0.1268741 0.049336787 -0.07726749 -0.22035372 -0.08806191 0.07914099 -0.09301701 -0.121173754 0.16599938 0.11516241 0.20271498 0.083829716 0.013874613 -0.05490593 -0.10194765 0.10208458 0.15607311 -0.054735847 -0.28225043 -0.20285627 0.088808194 0.07695028 -0.0064606625 0.035370193 -0.06878506 0.06805056 0.036430955 0.075797215 -0.08605011 -0.08525288 -0.11801701 0.0077666347 0.062157713 0.032525335 -0.025957957 0.03703037 -0.014210203 0.046672568 0.13073725 -0.07496778 -0.32699496 0.11682388 -0.084814824 0.004740375 0.06444339 0.26964003 0.018729389 0.16552027 -0.0019827064 -0.13952397 0.21904497 -0.015725628 0.11037759 -0.06959898 0.2093925 -0.05476344 0.07389132 0.049578637 -0.08004201
18 0.14050403 -0.02569735 0.09160035 0.052248463 0.058348536 -0.116542116 0.21106191 0.021502314 -0.05393962 -0.09458308 0.17019421 -0.16857466 -0.25599894 -0.025042959 0.07130052 -0.003929033 -0.03235348 0.06880023 0.059801504 -0.03272288 0.27584028 0.20195377 0.17360741 -0.0880189 -0.12591617 0.15475178 0.0011083697 0.19030872 -0.035139415 0.09193076 -0.10333782 0.025861176 -0.03945819 0.05133768 -0.30077404 -0.07764204 0.026711145 -0.03624265 0.06379496 0.035333917 0.120930664 0.014043869 -0.26346847 -0.05305287 0.037730616 -0.115834594 0.06517423 -0.024737978 -0.09291083 0.03245954 -0.12104133 -0.10039199 0.074400656 0.06979187 -0.09715913 0.19052194 0.123676665 0.026200734 -0.12728177 0.012260426 0.03194696 -0.042163767 -0.006941373 -0.24392234
97 0.24299651 -0.05400674 -0.07541621 -0.03453152 0.0020331289 -0.038212936 0.12781507 -0.112359606 -0.09730595 -0.043270584 -0.0055788006 -0.06652755 -0.2168502 0.104657985 0.084599026 0.14156818 0.0072153253 -0.056189068 0.09464848 0.14385568 0.17909782 0.0032782934 0.14200594 -0.13139507 -0.03390839 0.088435166 -0.028921107 -0.00493369 0.08076974 0.12782006 0.10981996 -0.12744564 -0.11381869 -0.077033944 -0.14236537 -0.0645671 -0.084702976 -0.04900547 0.07896939 -0.0010228084 0.08063453 0.17097287 -0.20923844 -0.09612804 0.070373006 -0.14035058 0.046280514 -0.2262814 -0.17097647 0.16953541 -0.04661116 -0.1770687 0.04358683 0.13869682 0.0832603 0.07622476 -0.101448685 0.15416275 0.06525476 0.39913738 -0.0022763768 -0.056608934 -0.047466915 0.01657493
83 0.08707045 -0.19370486 -0.033998907 -0.12567542 0.18212357 -0.10715059 0.07885498 0.1906652 -0.20025387 0.046978835 -0.070742644 -0.048883624 0.101492725 0.06379594 0.08684619 0.11240573 0.047562957 -0.03845089 -0.07014736 -0.08260391 0.014140317 0.2305667 0.025027614 -0.13037667 0.04997025 0.0760896 0.033056535 0.17319585 0.16145551 0.06776645 -0.11636369 0.043342777 -0.028984213 0.037513733 -0.2757723 -0.24821483 -0.0358396 -0.10207317 0.067136385 0.02261476 0.004555703 -0.09447288 0.17971824 -0.09564436 -0.044291142 -0.031265587 0.09891517 -0.003571121 0.106313236 0.15923516 -0.006607537 -0.09576288 0.025580818 0.16440289 -0.17259577 -0.0072347135 0.2809356 -0.06693665 -0.099305846 0.20229204 -0.07589465 -0.15046942 -0.092563175 0.04665267
36 0.14175051 -0.06986021 -0.059777427 -0.013753412 -0.006188573 0.023407467 0.0984353 0.074020185 -0.17915228 -0.11827111 -0.055722926 -0.010827933 0.015500152 0.21720892 0.10437975 0.15259203 0.053416643 -0.04567494 0.07027123 0.03865259 0.1019148 0.23955896 0.022939324 -0.1410778 -0.014096554 0.13248095 -0.117300846 0.115956664 -0.04364222 0.053702224 0.006798569 0.04473863 -0.10430965 -0.07659664 -0.07248477 -0.20293964 0.0024957203 -0.09403592 0.06475002 0.018964386 -0.066869 -0.022317395 0.011513545 -0.037356414 0.1555169 0.13354382 -0.009638262 0.121709436 0.09140665 0.1324577 0.018657 0.037328098 0.0942627 0.2906932 0.011998953 0.21041694 0.20335735 -0.046760358 -0.05228217 0.33710444 -0.25706515 -0.07157668 0.04892066 -0.10282022
52 0.111994155 -0.19051124 0.15037312 -0.1612169 0.049509183 -0.04959851 -0.059304874 0.02566508 -0.109968066 -0.10044387 0.050215904 0.03729469 -0.18257272 0.010695047 0.15647718 0.17143466 -0.019190688 -0.027211448 0.14080195 0.020263886 0.018221397 0.2684513 -0.024102576 -0.24548237 -0.05421713 0.26128757 0.022631979 -0.016344212 0.0017572149 -0.14957094 -0.0090421615 0.21013477 -0.17948481 0.06700862 0.13707377 -0.12879284 -0.040165402 0.06028109 -0.1225774 -0.17406735 -0.085850075 0.08246129 0.05506659 -0.077934414 0.04260954 -0.16519514 0.1581929 0.08313253 0.075821854 0.16195488 0.117856875 -0.107971445 0.302206 0.14395723 -0.058375724 0.12920946 -0.0905818 -0.04985659 0.00060406706 0.057215184 0.00670461 -0.018979795 -0.15347461 0.11728265
86 -0.025373721 -0.086907126 -0.08603479 0.026758283 0.24834217 -0.01832435 0.00034986736 0.04947018 -0.24009998 -0.0013747092 0.06341988 -0.12378768 -0.19510025 -0.21179263 0.19001338 0.28940314 0.16424918 0.0017428515 0.04374083 0.15338464 -0.0069498983 0.11755321 0.09940834 -0.07707861 -0.12386059 0.23404314 -0.084098525 -0.09581072 0.15753426 -0.21460928 -0.07340931 -0.004187129 -0.06389121 0.15483998 -0.12592164 -0.1336316 0.17638823 -0.068259746 0.051143084 -0.007781445 0.009698593 -0.1447157 0.19310547 0.09892147 -0.008815647 -0.12212536 -0.062479682 0.007919068 0.12591511 0.058347903 -0.12804231 0.18484901 -0.0007902848 0.11522912 0.036451116 0.018684523 -0.04849003 -0.15793274 -0.01680173 0.117026664 0.009908112 -0.24893829 -0.17924921 -0.10392901
60 -0.027487226 -0.14683045 -0.19722609 0.07794205 -0.0013557636 -0.08888727 -0.026854027 0.11203076 -0.21775518 0.10727894 0.3152778 -0.23758346 -0.024660632 0.0033208209 -0.020482626 0.102344796 -0.08253216 -0.093577825 0.12993552 0.018308878 0.04618967 0.1371652 0.13901171 0.062991925 0.01658375 -0.059661984 -0.058624834 0.043175835 0.17090024 -0.036149584 -0.07361062 0.13303615 -0.10968334 -0.072967164 -0.23366933 -0.032065194 0.0014577715 0.039713196 0.25228325 -0.10609 -0.1883783 -0.076972134 -0.18197027 0.107990436 -0.025496658 -0.16096857 -0.12728894 0.08245848 0.23138677 0.08237005 0.10978121 -0.1594855 0.24320868 0.2268486 0.12152679 -0.043979 0.05246937 -0.06538326 -0.16805993 0.14655352 0.08118046 0.022188323 -0.02919694 0.044731285
87 0.15407473 0.086618416 -0.002000067 0.03784206 0.06884358 -0.083662406 0.05864155 -0.113563195 -0.12599526 0.13177852 0.050855562 -0.10387327 -0.22585434 -0.112293415 0.2946204 -0.006768226 0.21262237 -0.09510418 -0.040565554 0.099398784 0.041700426 0.09960017 -0.13875598 -0.24444982 -0.07938414 0.21067713 -0.111222036 0.072021835 0.24617037 0.019267725 -0.073993824 -0.008808601 -0.015718386 0.089810155 -0.1766602 0.07913561 -0.16192564 -0.0886559 -0.10574126 0.031783115 -0.07398536 -0.13838144 0.12246385 0.11072496 0.18231247 -0.107075274 -0.07450394 -0.030970218 0.110787734 -0.07556581 0.120045446 -0.054056123 0.122277744 0.22835764 0.08458086 -0.0016941003 0.057940047 -0.0014944708 -0.09028724 0.19333641 0.046479758 0.039440688 -0.0023303097 -0.025005555
45 0.009267536 -0.09248892 0.15559712 0.086783655 0.04181888 -0.057617255 0.111273654 -0.10825951 -0.3434719 -0.07820428 0.1543987 -0.012748637 -0.09655446 -0.04468692 0.09362196 0.19390035 0.16079348 0.10549521 -0.03829144 -0.1351685 0.0040467414 0.17722479 0.13456637 -0.1619299 0.22033612 -0.01938118 -0.09948599 0.050869446 0.051483758 0.19579814 -0.054624863 0.10016474 -0.35668263 0.22940156 -0.12200846 -0.05589528 0.003133425 0.057446957 0.006328838 0.06208215 -0.050995354 -0.07263819 -0.112897314 -0.12816562 0.0881086 -0.14376692 0.07574053 -0.06232593 0.10678367 0.13995679 -0.10299285 -0.07087032 0.04199629 0.09922076 -0.1771078 0.119266175 0.21496971 -0.023615342 -0.05082511 0.058717888 -0.050477013 -0.13022977 0.004320225 -0.08522174
33 0.070398875 -0.11889094 0.10023803 0.039237928 -0.007087014 0.0032718687 0.19583295 0.05758383 -0.16883428 -0.079232596 0.027466334 0.0998324 0.023272416 -0.000792321 0.12741439 0.23192754 0.27874526 0.060219333 -0.06350526 0.105633825 -0.031081596 0.19316493 0.08690984 -0.18025191 -0.18130982 0.08346699 -0.20450395 0.1745878 0.074638575 0.17395444 0.012668681 -0.026460422 -0.26917055 -0.016517255 0.056360207 -0.043207385 -0.14773741 0.117203765 0.20160247 0.045414206 0.025685653 0.073084615 -0.030240541 0.029813044 -0.11292673 -0.07575433 0.0077143507 0.01342439 0.13918267 0.08323267 0.09809858 -0.041574165 0.13691744 0.24065068 -0.17496996 -0.19053516 -0.07939903 -0.0117143 -0.16035701 0.009752181 -0.04471544 -0.12711778 -0.1314049 0.072728276
3 0.0022546402 -0.06558711 0.016395958 0.060195964 0.18443456 -0.093245685 0.1439678 0.1211975 -0.1744908 -0.059468426 0.01926412 -0.17224436 -0.12628451 0.21991625 -0.05846914 0.11872001 0.19612862 0.019621687 0.060171418 0.11046594 0.041110087 0.2249148 0.14759786 -0.18616846 -0.1820917 -0.03083467 0.039479747 0.007142432 -0.0014109216 -0.014864102 0.053924922 -0.079003 -0.07200021 0.039363742 -0.16354857 0.07402416 0.048492625 0.0032874448 0.00763251 -0.037057526 -0.051823705 -0.031333532 -0.06620616 -0.1271607 0.15114412 -0.09516224 -0.10034545 0.07803162 -0.07629864 0.12691763 -0.14102152 0.19909859 0.31085518 0.15376827 -0.075498566 0.22391388 0.118072025 0.10044537 -0.14628121 0.17925824 -0.12107055 0.12293388 0.021965306 -0.0044521857
68 0.30163398 -0.11849107 0.045348004 0.0241243 0.11716725 -0.0050041787 0.021446446 0.07594843 -0.05618842 0.06852291 0.05881269 -0.03305243 -0.13240835 -0.0062062363 0.17664465 0.18319298 -0.053974733 0.05849207 0.11334217 0.09258658 -0.07985796 0.066351995 0.07804554 -0.083288066 -0.012144705 0.017121494 -0.106374875 -0.14307915 0.073398836 0.124965556 -0.017884104 -0.038554613 -0.044403914 0.000533972 -0.09589599 -0.018251168 -0.12889038 -0.05145787 -0.10080942 0.28391057 0.0016313156 0.18201807 0.23039176 -0.16507451 0.2958679 -0.062159836 0.04708984 0.11735318 -0.12338404 0.10719886 0.15023592 -0.11965046 0.16139674 0.09750774 -0.04584689 0.08831939 -0.016965846 0.18406159 -0.15339103 0.29945353 0.09002523 -0.16243252 -0.06169914 -0.04756086
28 0.09546595 -0.31720263 0.00031892728 -0.079861425 0.15710591 -0.13143997 -0.09032609 -0.054745663 -0.0406402 0.06616145 0.071800746 -0.27810475 -0.08557645 -0.11098461 0.035768103 0.10845331 -0.07367862 -0.06095916 -0.15348196 -0.025759518 0.24237719 0.20887455 0.033242565 -0.17040578 -0.058149293 0.06074856 -0.0308504 -0.012530098 0.10269834 -0.024913888 -0.16848102 0.0033142495 -0.02920265 0.042659752 -0.08533522 -0.016813202 -0.054498687 0.14315829 0.05286517 0.0956494 -0.20177497 -0.02663054 0.089778736 -0.08972379 0.04756671 0.0056617134 0.18574078 -0.050028894 -0.14443357 0.054205712 -0.27068034 0.06288444 0.011454589 0.26877216 -0.062343244 0.07736145 -0.062172346 -0.0034781524 -0.28499767 0.1281402 0.1722304 -0.0460244 0.012282656 0.07369243
7 0.11616714 -0.15879698 0.12759347 0.01444719 0.056356724 -0.101470724 0.102707624 0.10536909 -0.15063399 0.04343399 -0.009238896 -0.08727167 -0.026997674 0.086495034 0.11190651 0.01840161 0.07956612 0.11004666 -0.21725455 -0.07996821 0.12263763 0.26928508 0.06245215 -0.14264233 -0.09788089 -0.019981796 -0.1628061 -0.092932455 -0.10254109 -0.12265191 -0.15762867 0.16924267 -0.06599423 -0.020737553 -0.0448028 -0.105972365 0.13000189 0.084931314 0.02461535 -0.02499942 0.17414449 -0.23454526 -0.10055834 -0.10140778 0.012414196 -0.2138106 -0.11262735 -0.0021310237 0.09010458 0.15493307 -0.036432367 -0.073120706 0.17848356 0.13236183 -0.030763699 0.14579105 0.17071585 0.0026547061 -0.07840956 0.20548448 0.21287118 -0.061920173 -0.014763611 0.24635705
1 0.22631922 -0.14277337 0.16510133 0.10888663 0.12254178 -0.06996381 0.17613031 -0.07262421 -0.0045532533 0.038124066 0.051037494 -0.3653113 -0.15002276 -0.037439875 0.040065747 0.25873518 -0.058456246 -0.112182125 -0.08479107 0.24372272 0.07707238 0.029777976 0.15297571 -0.12901565 -0.31580657 0.039037082 -0.013878075 -0.011317943 0.10203049 -0.0065116775 0.17602924 0.109849796 0.028893877 0.15918544 -0.13069592 -0.11265569 -0.08200079 0.094879806 -0.087228216 -0.004891659 -0.087316096 -0.15531787 -0.010563434 0.05641725 -0.143015 0.01017865 -0.02652206 0.036781296 0.022413608 0.024891049 0.07269402 0.05452553 0.1201826 0.11178573 -0.0833484 -0.06697702 0.13028431 -0.0017978951 -0.23382998 0.09984842 -0.15686448 -0.17254563 0.043081112 0.081587166
42 0.031705476 -0.30950335 0.058148228 0.07473513 -0.14585091 0.09307581 0.06929547 0.16882855 -0.23459607 0.06475607 0.12255657 -0.29261652 -0.121877946 -0.0051950887 -0.109459646 0.17269267 0.060620315 -0.0639799 0.08713417 0.06325504 0.098646 0.027459593 -0.0723054 -0.2139176 -0.119682804 0.15182458 -0.22336426 -0.021006437 -0.1218477 -0.01292131 -0.05960478 -0.05921103 -0.14029379 -0.16166292 -0.029519184 -0.106921345 -0.041786753 -0.12886158 -0.030913865 -0.039536018 -0.015177534 0.036282342 -0.07035717 0.04733939 0.26200983 -0.26578885 0.013877445 0.005995564 0.09445164 0.07131532 0.09023061 -0.14807126 0.050895553 0.13908887 -0.08615913 -0.14521867 -0.11875475 -0.003150059 -0.23670846 0.06604413 -0.12202697 -0.2031113 -0.14121015 -0.010518982
61 0.04003448 0.03225263 0.1266849 0.11128869 0.46433902 -0.09030009 0.074498646 0.21441233 -0.14300945 -0.040727522 0.07048131 0.07330678 -0.003350763 -0.078089826 0.21606547 0.20759106 0.006013053 -0.030316753 -0.022622097 0.08643161 0.04948649 0.13529731 0.106109165 -0.34424743 0.055295 0.07129282 -0.03853711 -0.030443422 -0.0041374546 0.11420499 -0.08170352 -0.024142355 0.06378653 -0.015506224 -0.15692537 0.23417714 -0.07099142 0.013042001 0.12211522 0.11327192 -0.037745457 0.1749831 0.07147066 -0.09445545 0.018722383 -0.12426983 -0.14792149 -0.05563427 -0.12356993 0.107242584 0.014684997 -0.20872207 0.06698549 0.1537639 0.12551427 0.108585 0.100658216 -0.023353066 -0.09962679 0.23000221 0.09510392 0.08193806 -0.11544161 0.0058539044
57 0.013496437 0.07678067 0.03953947 -0.052758124 0.0884197 -0.12884396 0.016607227 -0.21917601 -0.24055268 -0.101746164 0.1636476 -0.22825386 -0.124502085 -0.18804239 0.007965184 -0.18669853 0.0364449 0.105594896 0.071018174 0.12875757 0.046363685 0.1965209 0.059864245 -0.29913375 -0.053896684 -0.13793643 -0.06786667 0.04437838 0.1903747 -0.071715236 -0.096382 0.14524338 -0.22486366 -0.13815479 -0.054090604 -0.04306944 -0.23417623 -0.0504707 0.1588254 0.3117451 0.10884395 -0.043238122 -0.14485653 0.04372666 0.10412448 -0.04482998 0.017094988 -0.07178691 -0.07152546 0.11028255 0.12486056 -0.01479065 0.084130354 0.15750498 0.019610569 0.0793485 0.14847839 0.14654706 0.011174145 0.17875554 0.12802209 -0.094830714 -0.008319927 -0.070443
92 0.1307562 -0.32507628 0.12622751 -0.0063236607 0.24719952 0.025912995 -0.089634806 0.05868374 -0.015515298 -0.06457293 -0.004514079 0.06640362 0.05870365 0.016856233 0.03907979 0.28367424 0.030070819 -0.10887461 -0.0026207468 -0.051437505 0.25478986 0.18673784 -0.06318941 -0.12599994 0.09848907 0.011911485 -0.0152947735 -0.022820199 0.19096097 0.13793683 -0.18628499 0.08672953 0.0313402 -0.00898683 -0.0150592895 -0.017460728 0.107225366 0.14357336 0.119119436 0.06008748 0.120270014 0.107322335 -0.05679389 0.039387878 -0.024498763 -0.24856438 -0.06937933 0.010612122 -0.0011214815 0.18413116 0.12197739 -0.09744428 0.36076304 0.07028762 -0.020414181 0.17730758 0.12724113 0.20413423 -0.057964865 0.12399468 -0.13154705 0.07357132 -0.0043399795 0.032363728
48 -0.109467566 -0.079109535 -0.014379011 0.21579133 0.022360908 -0.1734546 -0.04737243 -0.053266123 -0.08142549 -0.052880265 -0.12747653 -0.05189138 -0.008974331 -0.038576517 0.14185514 0.18759912 0.028877929 0.023549192 0.15869637 0.2075424 -0.053304233 0.116424195 0.34408957 -0.21743132 -0.17457525 0.049287215 -0.0036353974 -0.03399213 -0.024684222 0.023765696 0.06806575 -0.15003848 -0.16011986 0.11538126 -0.12071857 -0.07133678 -0.088294394 0.03183025 0.14157222 0.019449899 -0.0116503835 0.02064501 0.101317525 0.107937686 0.11312577 -0.23864059 -0.25393367 0.008316687 -0.17236139 0.09783765 0.03058148 0.020646878 0.35645264 0.14036432 -0.17689964 0.04445245 -0.11478618 -0.11549432 -0.04543807 0.16803378 0.18756661 -0.011189407 -0.16436814 -0.024539085
79 0.19698569 -0.14464466 -0.19312733 0.0075183036 0.11618899 -0.050112166 0.095586106 0.0030025947 -0.051572964 -0.14964096 0.24057965 -0.13175894 0.055239268 -0.024521567 0.0718158 0.19229953 0.042588625 -0.1398546 0.0053965067 0.065126054 -0.21045533 0.23434162 0.09295211 -0.12353693 -0.2744624 -0.07896624 -0.22322688 -0.056846518 0.17984405 0.040415853 0.00060860644 0.011835393 -0.23177269 0.10653348 0.0016599934 -0.29955614 -0.047155038 0.17656557 0.056612935 -0.06998324 0.07058081 -0.15051633 0.1652191 -0.021298086 0.20191823 -0.22520933 0.026176311 -0.019935688 -0.1207473 0.0035548748 -0.08552169 -0.1773933 -0.045352396 0.1364241 -0.039746493 -0.07540143 0.1701883 -0.06384258 0.11782935 0.08606031 -0.12048873 0.06481365 -0.06957494 0.008981302
49 0.09268269 -0.16816148 0.15776487 -0.18573178 0.18111365 -0.13596852 0.081939295 0.011704361 -0.1824742 -0.011578429 0.16954073 -0.06367509 -0.010899461 -0.086183816 0.14416848 0.08083204 0.21789093 -0.19701785 -0.09892744 0.23165032 -0.0044454033 0.20064709 -0.06380054 0.07852937 -0.17739674 0.21882324 0.051622886 0.16870469 0.021954233 0.008453835 0.06298927 -0.10703685 -0.024114884 0.048769876 -0.18393643 -0.072453216 0.06126345 0.09623095 0.23647958 0.046509758 0.06613033 -0.07342136 -0.03457626 0.022511931 0.019159831 -0.015571134 0.08155922 0.009654917 0.038093317 -0.053364296 0.027933123 -0.2991166 0.19646221 0.20960602 -0.12255511 -0.13305512 -0.102679625 -0.23741427 -0.007512443 0.2206326 0.0014120744 -0.032272406 -0.03488647 -0.18733604
96 0.11488693 -0.023911577 -0.015674409 0.31087196 0.1935287 -0.14032748 0.05683983 0.08150091 0.11415539 0.0483362 0.1055289 -0.26222724 -0.12890932 0.12951599 0.1904872 0.11419654 0.04990754 -0.073517576 0.027470583 0.1532958 0.29146633 0.16760689 -0.031178817 -0.06373696 -0.12788905 -0.100465156 -0.07390029 -0.020068604 0.04979322 0.1842545 -0.111439675 0.101664275 -0.090113856 0.049353313 -0.23184288 -0.14239039 -0.010077425 0.037442632 0.19773833 -0.19311273 -0.0001603975 0.18746671 -0.03433683 0.16223803 0.15801704 -0.13746855 -0.06267664 -0.049342383 -0.22528389 0.09881988 0.029693354 0.07452724 0.19392528 0.0683599 -0.05418033 0.07568972 0.13572127 -0.036504753 -0.10445748 -0.07074021 0.026258204 0.10931484 0.043829035 -0.1197405
8 -0.098559774 -0.18604179 0.10445941 0.19311316 0.10688968 -0.07130803 -0.14650203 0.12067261 -0.24586357 -0.048323214 0.0117917275 -0.057282757 -0.17983022 -0.005326402 0.04963435 0.26899803 -0.08758687 0.024760323 0.044602618 0.22168414 0.13669598 -0.07997983 0.082699016 -0.35092205 -0.0036687637 0.054040633 -0.022715317 -0.042121235 -0.037780832 -0.09667905 -0.09341292 -0.07645823 -0.19206536 0.006809911 -0.102073945 -0.07633498 -0.0052091307 -0.0969356 0.04793621 -0.19193597 -0.015865207 0.06713173 0.18533891 -0.06155043 0.27650535 -0.18922406 0.012663935 -0.029136753 0.18170486 0.062533684 0.08357063 -0.13812993 0.15378448 0.18567725 -0.0037626936 0.00113808 -0.02984788 0.016472714 -0.023522345 0.097480156 -0.030224787 0.048962113 0.063524716 -0.2209799
29 0.11945948 0.019144064 -0.10266156 0.068194315 0.33518338 -0.11151604 0.032791343 -0.13338466 -0.25238255 -0.09214697 0.0053600986 -0.057334162 -0.08004337 0.007972441 0.074808754 0.108228795 0.037802886 0.019515926 -0.053385116 -0.029075539 0.1736262 0.1907326 0.09475419 -0.096330136 -0.11181834 0.23614186 -0.027613565 -0.080849685 -0.011431236 0.165443 0.016318627 0.13585413 -0.2905775 -0.045216195 0.062403608 -0.1513279 -0.029561043 0.26286697 0.13375778 -0.14290848 0.03231217 0.037122447 0.0643631 0.1146444 -0.077770986 0.00612546 -0.1571166 0.10215392 -0.12942177 0.17826682 -0.06469699 0.08448597 0.24007809 0.20052476 -0.025018098 -0.035690863 0.09681499 0.007926375 -0.10776655 0.0011393857 0.26202655 0.059937857 -0.22539034 -0.20593132
39 0.339711 -0.050779678 -0.04429366 0.16103156 0.08116914 -0.2825072 0.28701088 0.22046915 -0.16911255 -0.032364737 0.09147969 -0.004048664 -0.09068311 -0.13281263 -0.0019643954 0.06302094 -0.07816327 0.11563881 0.19908388 0.07441808 0.086547546 0.099928916 0.12467941 -0.09010408 0.18245715 0.080286324 -0.1484053 -0.323964 -0.026676165 -0.0072987517 0.0605957 0.16146153 0.11921575 -0.034405787 -0.15567994 -0.027633458 0.11446576 -0.019741204 0.20565756 -0.017180441 -0.07406081 0.17493457 0.09213648 0.022766458 0.13666159 -0.040067643 -0.13627627 0.0021969744 0.10798581 0.1758785 0.06687819 -0.030845745 0.19808461 0.13606443 -0.20583706 0.025746886 -0.056117985 -0.10685913 -0.13775459 0.19615884 -0.04937807 -0.08119788 -0.017002229 0.013381795
43 0.024441957 -0.08747732 -0.05573875 0.022495124 -0.03054452 -0.09335374 0.06419266 -0.05479272 -0.105930984 -0.034909163 -0.06778515 -0.09557086 -0.15716468 0.18035424 0.2531232 0.14516307 0.08208444 0.04935798 0.009565564 0.16274023 -0.09336128 0.26855016 0.149025 -0.022289893 -0.013201619 -0.013066231 0.047893513 -0.042360783 -0.010992978 -0.12430729 -0.05352767 0.0042342613 -0.010323691 -0.15337513 -0.22106117 -0.26430863 0.11597035 -0.18545999 0.30568194 0.017600682 0.10033295 -0.0059485463 0.01827392 -0.040277757 -0.08512136 -0.22940142 0.10536605 -0.031227585 0.081095636 0.30623928 0.11019774 -0.018758446 -0.013654963 0.0043928227 0.13948798 0.114717364 0.025075369 0.26127416 -0.11373028 0.061334137 -0.029860394 -0.24458675 -0.11409573 -0.18915084
95 0.13625497 -0.1456223 -0.090881094 0.324127 -0.013540492 -0.13414998 0.11705841 -0.022268781 -0.19590504 -0.17896345 -0.064460024 0.004971801 -0.2238338 -0.15912752 -0.13535462 0.07655009 0.19734117 -0.06728402 0.084520936 -0.0031772992 0.2908998 0.18534309 0.2343415 -0.21069862 -0.039839134 6.636365e-05 -0.083577126 0.020372603 0.16569842 -0.057470497 0.044385783 -0.03273337 0.05345822 0.08947888 -0.023971085 -0.03154898 0.02975152 -0.025427688 -0.0063919476 0.026780374 -0.076248646 -0.054715194 0.046582513 0.12592159 0.16491443 -0.16638023 0.1891557 -0.07378964 -0.012254115 0.14945321 -0.036584515 -0.16501431 0.3195952 0.06000686 -0.048236594 -0.1671692 0.12485705 -0.02668455 -0.04441092 0.051857192 0.013222377 0.12920786 -0.04269971 -0.009440724
99 -0.020852089 -0.16676548 0.021509442 -0.016511496 0.19246252 -0.12352176 -0.055863764 -0.07451489 -0.021539964 -0.08307971 -0.14294408 -0.07141726 -0.118744664 0.21732944 0.013513894 0.24693117 -0.086100146 -0.004103167 0.04307084 0.044289764 0.11411 0.2768416 -0.009523757 -0.188405 0.15019915 0.061490852 -0.0019217294 -0.035145313 0.06393889 -0.14583333 -0.083657205 -0.106734894 -0.13881548 0.064043716 -0.11917186 -0.3048385 0.023213286 -0.13280964 0.056283414 0.115715556 0.0026879718 0.031461276 -0.11688978 0.04520918 0.07226986 -0.14068055 -0.02525141 0.008874989 -0.11355856 0.101589054 -0.05198625 -0.030494653 -0.013003427 0.26039252 0.20537862 -0.10747871 -0.14868367 0.024356438 -0.25740388 0.07926268 -0.037554856 -0.191164 -0.20135248 0.08648698
13 0.06996122 -0.15915374 0.10021441 0.06069106 0.15220967 -0.027407791 -0.00049313164 0.056378536 0.04194825 -0.066293456 0.24399523 -0.03936195 -0.210405 -0.06940341 0.016564574 0.03253418 -0.021804325 0.14826442 -0.1612878 0.03914745 0.101017155 0.16958736 0.14546447 -0.21508811 -0.06506891 0.03825168 -0.0009965813 0.15279447 -0.20069642 -0.04826924 0.08571571 -0.0697268 -0.15269427 0.066654295 -0.08396699 -0.18578097 0.06704533 0.120286025 0.13484396 -0.029624255 0.047885332 0.039971016 -0.008870916 -0.041288003 0.10866691 -0.12553927 -0.061575983 -0.1512511 0.23240447 0.05709896 0.10979645 -0.23297276 0.111835785 0.20016484 0.24211843 0.097444184 -0.041944154 0.07335254 -0.16790187 0.18571754 -0.04409316 0.09600103 -0.12260143 0.041295838
0 -0.026110398 -0.15793712 0.17065923 -0.010636254 0.074715815 0.034403287 0.1611693 0.13523167 -0.19895133 -0.10261308 -0.061069895 -0.13254748 -0.064040564 -0.07051955 0.13785365 -0.02376103 0.25579205 0.038617045 0.009671559 0.058852673 0.11182509 0.26179475 -0.069831304 -0.2400756 0.031704728 -0.08732237 0.008846392 -0.044735126 0.13668367 0.07261463 -0.10350291 0.1522587 -0.08525412 -0.030174691 0.039700378 0.036795825 -0.09858889 0.09686436 0.13593696 -0.15214923 -0.0008823378 -0.06573757 0.076740466 -0.1659724 -0.04196746 -0.10902297 -0.048231836 -0.05989219 0.11783427 -0.009896445 0.12920573 -0.22341616 0.25827968 0.20044437 0.2140182 0.13032417 0.036759246 -0.021671345 0.04223621 0.17126833 -0.06315503 -0.2677724 0.16089332 -0.08680425
41 0.07226339 -0.16160226 0.29190513 -0.07425218 -0.09817234 -0.1444185 0.1650909 0.0012395403 0.040198643 -0.17995414 0.14447033 -0.21133886 -0.2954081 0.12404241 0.09308897 0.17405984 -0.098821 0.13035166 0.08629128 0.038118277 -0.053023227 0.02569045 0.15430608 -0.19602898 -0.1210597 0.030554807 -0.045331966 0.16395295 0.020405015 0.15558362 0.015390654 0.07742601 0.031360827 0.009092869 -0.1934466 -0.07444391 0.0013325838 -0.026109481 -0.033072717 -0.037663363 -0.08740352 -0.23401955 0.092467144 0.25197864 -0.0096048005 -0.06114102 -0.09832996 0.10466533 0.08596928 0.09017981 0.08490633 -0.022073708 0.22412218 0.24420281 -0.01724269 0.0962377 0.050629664 -0.04210038 -0.10836682 0.055269096 0.11992961 -0.19011688 -0.022216583 -0.16169022
70 0.06859329 -0.10738482 0.04621982 0.18823631 0.102195725 -0.05494883 0.14328626 -0.22611837 -0.10794073 0.1606077 0.08697733 -0.09820351 -0.08043666 0.04391072 0.09642725 0.12084027 0.13434428 0.07150507 0.12892586 0.025875024 0.06540091 0.23391202 -0.021285467 -0.19751473 0.024726585 0.25288317 0.14400949 0.09411298 0.25026786 -0.114461005 0.12372664 0.086767234 -0.017634248 0.14692035 -0.19086426 -0.1282594 0.10990544 -0.0035524797 -0.13850076 -0.009866778 -0.072126865 0.021561578 -0.10377866 -0.04576051 0.24005854 -0.13150582 -0.1018851 -0.05899605 0.0058139437 -0.072437845 0.31342092 -0.09859142 -0.0018118012 0.30636084 -0.064152986 -0.18271352 0.23341504 0.034303114 0.03744389 0.07535184 0.0032057876 -0.18282485 -0.0064039105 0.057584524
76 0.21178491 0.12628756 -0.034885712 -0.0033363723 0.041840117 -0.1926942 0.19521153 -0.06772728 -0.24630527 -0.06415002 0.020919442 -0.17983164 -0.2466912 0.18146682 0.27978504 0.18468031 -0.12567177 -0.25449437 0.048038714 0.13999347 -0.042672545 0.16169539 0.009266436 -0.15536585 0.06811846 0.16817777 -0.011846397 0.06993267 -0.004880263 0.058994815 -0.00016363863 0.14325838 -0.14133106 -0.10234745 0.048696756 -0.063473165 -0.06038617 0.18747881 0.047506023 0.09102681 0.11528829 0.03269116 0.0021600768 -0.0721598 -0.08117654 -0.10326815 0.112133175 0.05290676 0.07993329 0.12442711 -0.12898895 -0.1160253 0.21892726 0.13619311 0.06367493 -0.04259451 0.11576323 -0.04640565 -0.028753325 0.07581894 0.13244283 0.011215145 -0.18762581 0.0652688
12 -0.08798069 -0.036941323 0.16078877 0.0754281 0.0899185 -0.1949275 0.2115947 0.188972 -0.033385526 -0.0015923873 -0.046981037 -0.22934541 -0.13253461 0.060701415 0.14874804 0.07364318 0.14361015 -0.03171886 0.037673354 -0.006225369 0.111820616 0.3508378 -0.055078737 0.08683629 -0.09674326 0.112199195 0.038536943 0.007942893 -0.055266555 0.10366386 -0.07798852 -0.14927696 -0.22298844 0.031071782 0.0763547 -0.0902121 -0.050796147 0.07887183 0.09149597 0.04426522 0.05331366 -0.29622498 0.06912922 0.054968514 0.15236594 -0.31771275 -0.19096078 -0.06592537 -0.09045787 0.09687582 0.0012054386 -0.13697407 -0.06023829 0.27586827 -0.20477189 0.08539419 -0.017869148 0.00095709076 -0.0048437836 0.20026265 -0.047396146 0.063360095 0.0772236 -0.024169955
62 0.08326952 -0.017613107 -0.18578008 -0.08051235 0.015532702 -0.05384613 0.11034725 0.056597464 0.0010036967 -0.16115049 0.095007814 -0.13194169 -0.2138003 -0.025746437 -0.052489262 0.10055711 0.021321129 -0.0482101 -0.06259171 0.08418759 0.108427934 0.13540627 -0.102871604 -0.3046778 -0.04984459 0.008104964 -0.08044695 0.023344455 0.19158767 0.14594346 -0.13298212 0.13673662 -0.14932 -0.049949106 -0.04982704 -0.2974422 0.09755258 -0.036506116 0.10864153 0.21635206 -0.06341507 -0.021537453 0.21387897 0.06489932 -0.04107275 -0.11534182 -0.10735052 -0.23446427 -0.16861154 0.33286017 0.20999281 -0.097757205 -0.087595604 -0.041277505 -0.16372012 0.036301184 0.10621114 -0.029020237 -0.36108544 0.10056975 0.10545613 0.033764645 -0.0645597 0.012072099
30 0.13771315 -0.0798955 0.17775893 0.0012232373 -0.0084351795 -0.15928808 0.13371067 0.099349394 0.0092920195 0.20218587 0.055811156 -0.089843616 -0.118051484 -0.20213479 0.12957828 0.14715518 0.025823407 -0.015341368 0.03378697 -0.05124914 0.10879095 0.29566404 -0.09023912 -0.1951298 0.036718532 -0.11065055 0.0056997957 -0.065178916 0.06689061 0.23853496 0.003442589 0.19258451 -0.010663155 0.17123145 -0.102090314 -0.14818925 0.1704355 0.03669803 0.1901688 -0.013147451 0.018629206 -0.081682056 0.014302368 0.016642561 -0.045314375 -0.09240637 0.087614484 0.088232785 -0.20394754 0.25249854 -0.041264538 -0.0037022135 0.07404833 0.048149947 -0.0127180405 -0.1669173 -0.12325456 0.12045842 -0.07609073 0.38080874 0.017591264 -0.11920523 -0.16774088 -0.2616214
17 0.035649188 -0.17015253 0.068006516 0.0071238633 0.07171704 0.12559399 -0.071481176 0.014778139 -0.15717132 -0.22465056 0.009955942 -0.12594809 -0.17158987 -0.031160124 0.12923525 0.042180903 0.07947412 0.027835667 -0.056325044 0.113592856 0.09109216 0.14172561 -0.09928258 -0.05075814 0.12098878 0.19359416 -0.09188496 0.03736582 0.25815588 -0.18296549 -0.21477331 0.080887735 0.035401173 -0.026975222 -0.16603975 -0.11159597 0.015917938 0.1175514 -0.023053324 0.10684361 0.008822488 0.19206546 0.07663919 -0.004232125 0.14690484 -0.10225119 0.05490932 0.042037968 -0.023079183 0.06576759 -0.013308855 -0.06308992 0.118276134 0.17831647 0.062466476 0.0931659 0.15102002 -0.117809765 -0.058983196 0.25249285 -0.4272345 0.05448791 -0.23820078 -0.1846507
19 0.28748804 -0.16763641 0.21361777 0.019184412 0.14819044 -0.088550285 0.02317172 -0.057814065 0.0014485917 -0.26894796 -0.03016527 -0.05594777 0.07055169 -0.17287722 0.3664142 -0.029021801 0.13795266 -0.15406306 0.11550007 0.09564998 -0.06731904 0.23258615 0.29469538 -0.22994696 -0.0013897418 0.020337926 -0.117027454 -0.15216562 -0.1323016 -0.016346034 -0.1243238 -0.09633081 -0.07739912 -0.05710207 -0.08211095 0.025934212 -0.06262163 0.013633091 0.16658081 0.06893573 -0.26668498 -0.048107237 -0.048234496 -0.025678085 0.07796031 -0.09897319 0.1420416 0.086534336 0.13315915 0.04708339 0.095283315 0.044586074 0.061255045 0.123818904 0.1385031 -0.0007832879 0.12282883 0.051201392 -0.1661626 0.0047314614 0.12535518 -0.19088213 0.05129419 -0.046984103
90 0.09259372 -0.14549604 0.10422147 0.03853723 0.33306676 -0.04846001 -0.1380722 -0.053049933 -0.08434954 -0.008713512 0.3956059 -0.17673749 -0.01643633 0.15601166 -0.024680207 0.010313013 0.29353666 -0.14191529 0.04321576 -0.111122265 0.10500674 0.046266355 -0.028391115 0.058306985 -0.010169944 0.14337057 -0.018773738 0.0134590585 0.04243234 0.06577434 -0.04050416 -0.035690565 -0.10321395 0.1951716 -0.15533783 -0.33900604 -0.19504239 0.06580532 0.0495127 -0.022703242 -0.08751168 0.10198463 0.043251853 -0.14049868 0.098062366 -0.1726542 -0.041485317 -6.084224e-05 0.020124258 0.13329645 0.0379494 -0.24871524 0.032201804 0.081936195 0.1847945 -0.025364999 -0.038831193 0.018830936 -0.18294996 0.14794728 0.25620574 -0.12377453 -0.032811224 0.011831674
37 0.14807491 -0.06394548 -0.20257041 0.007957233 0.12007498 -0.21587315 -0.11210359 0.006706545 -0.19614546 0.057270773 0.08378719 -0.19494271 -0.0650744 -0.0574334 0.040979818 0.011469793 0.027753847 -0.14154296 0.010169764 0.06144589 0.058531523 0.10752495 -0.08239067 -0.31016904 -0.07635338 0.15788718 0.2399817 -0.04981213 -0.12542279 0.06137184 0.010230869 -0.04347688 -0.07816563 0.14031039 -0.07893119 -0.020291083 0.018391686 0.046137318 0.15851761 -0.10670111 -0.008048394 0.059425615 -0.19701163 -0.009061646 0.08844401 -0.3175768 -0.028797427 0.14758374 0.06354799 0.07642802 0.20542276 -0.09457285 0.005755179 0.17629327 0.078876294 0.028308403 -0.032501303 0.024130542 -0.2749529 0.23036562 0.068515554 0.13284925 0.14306419 -0.122116685
75 0.090581164 -0.0928239 0.025555696 -0.0064822636 -0.08400925 -0.03609892 0.04621458 -0.098896705 -0.061184116 -0.07493569 0.24191071 -0.3173043 -0.1276458 -0.013356696 0.2538831 0.098145165 0.12905064 -0.12784986 -0.1252869 -0.099680215 -0.045123726 -0.0808496 0.06880662 -0.19123983 -0.056500565 0.09988736 -0.2973436 0.10888421 -0.010860461 0.0011393294 -0.11955453 0.116777286 -0.11706574 0.045341767 0.076478206 -0.07259477 -0.026219439 0.039639942 0.26191026 0.12466626 -0.039467003 -0.044426385 0.11016716 -0.01980996 0.14802708 -0.23907433 -0.118668064 0.038902275 -0.007480982 0.025335237 -0.0011819747 -0.049378365 0.11443364 0.0053659393 -0.047889683 0.2096304 0.07705973 -0.14337154 -0.14723814 0.21159565 -0.1690965 -0.038057685 0.08568869 -0.18222652
91 0.07452423 -0.08433261 -0.031576823 0.031637896 0.00087965594 -0.1917619 0.06290236 -0.029451327 -0.03903817 0.14489938 0.032231063 -0.19986668 0.0062211375 -0.12560633 0.17383784 0.15471885 0.12525496 0.24397513 0.03423297 0.026238551 0.10319877 0.07011135 0.22614044 -0.009879226 0.016416565 0.18966651 -0.06874668 0.14006746 0.21981858 -0.10129095 0.022278069 0.13111742 -0.3899369 0.021814596 -0.18207438 0.03977341 0.003367749 0.088388324 0.15829383 0.00550209 -0.10755289 0.22276068 0.07063859 0.13988644 -0.02711467 0.010636143 0.14476793 -0.169182 0.11931045 0.1465833 0.08808518 -0.046994675 0.11619097 0.33187827 -0.28050187 0.090693496 0.047710586 -0.013042872 -0.012909234 -0.0063487994 -0.09507316 0.052802023 -0.010118706 -0.10533741
23 0.115386724 -0.08628187 -0.1919013 0.039621394 0.2024036 -0.08463093 0.004449769 -0.17286582 0.045077626 -0.1291709 0.008099312 -0.08795219 0.09644261 0.050254356 0.09398653 0.13684048 -0.20812778 0.22552471 0.08112002 0.18810064 0.22753263 0.0040202364 -0.042766716 0.028384538 -0.0144228125 -0.0033887764 0.10089537 -0.22272655 0.23087116 -0.05003422 -0.1288082 0.07721461 0.12620302 0.15469478 -0.031584486 -0.06620544 -0.28298187 0.013258215 0.22945634 0.12025527 0.008748837 -0.044269707 0.08019924 -0.08910418 0.040439997 -0.25957605 -0.115317546 0.013874583 0.122932605 0.29392037 0.020024551 -0.041324124 0.25209913 0.3266073 0.08627647 -0.10236845 -0.025261626 -0.06272163 -0.12163529 0.1699673 0.029551823 -0.13672078 -0.025404135 -0.14166981
73 0.02500639 -0.07869234 0.10386943 0.019255286 0.101694815 -0.04096608 -0.06709447 -0.1268258 0.10654533 -0.31597915 0.2103684 -0.11834172 0.0060445247 -0.019001713 0.09344647 0.25033215 0.05167532 -0.042110022 0.0049819695 0.035365984 0.052932113 0.3612172 0.042978458 -0.17060754 -0.11462743 -0.052672215 -0.24806814 0.0216501 0.14658068 0.18284409 0.056135107 0.03733339 -0.1848383 -0.064344935 -0.3179915 -0.07279273 0.07055973 -0.11528285 -0.08586624 0.052907467 0.114136584 -0.05178982 0.013363502 0.01075436 0.01785341 -0.06492453 -0.06722348 -0.08999289 0.116105266 -0.1327697 -0.23712683 -0.116119705 0.12295171 0.26889613 0.07182034 0.23998964 -0.14194804 -0.04564657 -0.119700976 0.045641124 -0.14002691 -0.083728224 -0.19395006 -0.061043695
58 0.17622246 0.08365298 0.32054353 0.065074116 0.3241913 -0.21730126 -0.04921033 -0.014068313 -0.1939465 -0.0159098 0.013303398 -0.0514395 -0.081125416 -0.12469882 0.14473821 0.15522288 0.079136394 0.028212544 0.41773987 -0.16022547 0.1965028 0.021814998 0.12404211 -0.0876799 -0.09386759 0.109012336 -0.121037506 -0.019905824 0.11818995 -0.1925477 0.06632437 -0.052019168 0.038636956 -0.13652058 -0.04856551 -0.13524222 -0.013523821 0.16193439 -0.04891512 0.024845628 0.18548176 -0.058277246 -0.06749641 0.15637568 0.13802823 -0.15099628 0.2478264 0.16334228 -0.12303616 0.07791067 -0.12163488 -0.22288409 0.021047736 0.24407154 -0.03168015 0.085543975 0.06442683 -0.009475976 -0.06950774 0.14088348 0.027524518 -0.0858707 -0.042805985 0.091171175
32 0.12761399 -0.05960154 0.10041769 -0.14956066 0.10685466 -0.09451134 -0.25361878 0.08230527 -0.02095888 0.013472524 0.04880643 -0.19225559 -0.01893815 -0.06603938 0.12342696 0.05748402 0.031475563 0.0041710287 -0.08669284 0.20175526 -0.12379146 0.20152898 0.10815343 -0.11539677 -0.17819218 0.09352744 -0.16712348 0.008685376 0.23425592 -0.030987138 -0.262682 0.101822115 -0.12423539 -0.16402172 0.02661739 0.17117502 0.008111538 -0.052856266 0.23743638 -0.07386261 -0.24075511 0.20590484 -0.048557896 -0.23760395 0.1037176 -0.22057009 0.14788312 -0.039104976 0.12680043 0.2937997 0.012622965 0.043990344 0.19469379 0.123463795 0.075284645 -0.088498145 -0.020379383 0.15215199 -0.0076964754 0.13658918 -0.14068623 -0.114741094 -0.0054628006 -0.19856943
2 0.05423401 0.08978039 0.1430217 0.2197887 0.15687065 0.08580062 0.006939063 0.047577262 -0.027702095 0.02312952 0.04135565 -0.17295806 -0.018431664 -0.13602631 0.2242567 0.38798442 -0.16257767 0.0023882268 -0.15447938 0.046420988 0.06757253 0.11429307 0.08752418 -0.25063387 0.16065189 0.22651295 -0.1478424 0.09757124 -0.006152694 -0.0023813683 -0.22265632 -0.2762491 -0.23722523 0.031062996 -0.11372156 -0.22754754 -0.23902003 0.13642782 -0.05154123 0.07640246 -0.15227498 -0.16209088 -0.07180224 0.087981336 0.24035542 -0.11393121 0.11149488 0.23907386 0.12516947 0.0927644 0.08333575 -0.018232388 0.11109218 0.001600119 0.06727019 -0.0082279695 0.18505925 0.042187512 -0.059232645 0.19677795 0.08493354 -0.008673414 -0.020915108 0.019467372
